digraph Tree {
node [shape=box, style="filled, rounded", color="black", fontname=helvetica] ;
edge [fontname=helvetica] ;
0 [label="worst area <= 868.2\ngini = 0.463\nsamples = 455\nvalue = [166, 289]\nclass = benign", fillcolor="#abd5f4"] ;
1 [label="worst concave points <= 0.132\ngini = 0.164\nsamples = 311\nvalue = [28, 283]\nclass = benign", fillcolor="#4da7e8"] ;
0 -> 1 [labeldistance=2.5, labelangle=45, headlabel="True"] ;
2 [label="worst symmetry <= 0.157\ngini = 0.022\nsamples = 269\nvalue = [3, 266]\nclass = benign", fillcolor="#3b9ee5"] ;
1 -> 2 ;
3 [label="gini = 0.0\nsamples = 1\nvalue = [1, 0]\nclass = malignant", fillcolor="#e58139"] ;
2 -> 3 ;
4 [label="area error <= 48.975\ngini = 0.015\nsamples = 268\nvalue = [2, 266]\nclass = benign", fillcolor="#3a9ee5"] ;
2 -> 4 ;
5 [label="worst texture <= 33.35\ngini = 0.008\nsamples = 265\nvalue = [1, 264]\nclass = benign", fillcolor="#3a9de5"] ;
4 -> 5 ;
6 [label="gini = 0.0\nsamples = 246\nvalue = [0, 246]\nclass = benign", fillcolor="#399de5"] ;
5 -> 6 ;
7 [label="worst texture <= 33.56\ngini = 0.1\nsamples = 19\nvalue = [1, 18]\nclass = benign", fillcolor="#44a2e6"] ;
5 -> 7 ;
8 [label="gini = 0.0\nsamples = 1\nvalue = [1, 0]\nclass = malignant", fillcolor="#e58139"] ;
7 -> 8 ;
9 [label="gini = 0.0\nsamples = 18\nvalue = [0, 18]\nclass = benign", fillcolor="#399de5"] ;
7 -> 9 ;
10 [label="worst concave points <= 0.087\ngini = 0.444\nsamples = 3\nvalue = [1, 2]\nclass = benign", fillcolor="#9ccef2"] ;
4 -> 10 ;
11 [label="gini = 0.0\nsamples = 1\nvalue = [1, 0]\nclass = malignant", fillcolor="#e58139"] ;
10 -> 11 ;
12 [label="gini = 0.0\nsamples = 2\nvalue = [0, 2]\nclass = benign", fillcolor="#399de5"] ;
10 -> 12 ;
13 [label="worst texture <= 27.415\ngini = 0.482\nsamples = 42\nvalue = [25, 17]\nclass = malignant", fillcolor="#f7d7c0"] ;
1 -> 13 ;
14 [label="worst smoothness <= 0.179\ngini = 0.413\nsamples = 24\nvalue = [7, 17]\nclass = benign", fillcolor="#8bc5f0"] ;
13 -> 14 ;
15 [label="mean texture <= 20.675\ngini = 0.308\nsamples = 21\nvalue = [4, 17]\nclass = benign", fillcolor="#68b4eb"] ;
14 -> 15 ;
16 [label="worst concave points <= 0.139\ngini = 0.188\nsamples = 19\nvalue = [2, 17]\nclass = benign", fillcolor="#50a9e8"] ;
15 -> 16 ;
17 [label="worst perimeter <= 111.2\ngini = 0.5\nsamples = 4\nvalue = [2, 2]\nclass = malignant", fillcolor="#ffffff"] ;
16 -> 17 ;
18 [label="gini = 0.0\nsamples = 2\nvalue = [2, 0]\nclass = malignant", fillcolor="#e58139"] ;
17 -> 18 ;
19 [label="gini = 0.0\nsamples = 2\nvalue = [0, 2]\nclass = benign", fillcolor="#399de5"] ;
17 -> 19 ;
20 [label="gini = 0.0\nsamples = 15\nvalue = [0, 15]\nclass = benign", fillcolor="#399de5"] ;
16 -> 20 ;
21 [label="gini = 0.0\nsamples = 2\nvalue = [2, 0]\nclass = malignant", fillcolor="#e58139"] ;
15 -> 21 ;
22 [label="gini = 0.0\nsamples = 3\nvalue = [3, 0]\nclass = malignant", fillcolor="#e58139"] ;
14 -> 22 ;
23 [label="gini = 0.0\nsamples = 18\nvalue = [18, 0]\nclass = malignant", fillcolor="#e58139"] ;
13 -> 23 ;
24 [label="mean texture <= 14.99\ngini = 0.08\nsamples = 144\nvalue = [138, 6]\nclass = malignant", fillcolor="#e68642"] ;
0 -> 24 [labeldistance=2.5, labelangle=-45, headlabel="False"] ;
25 [label="worst concave points <= 0.16\ngini = 0.408\nsamples = 7\nvalue = [2, 5]\nclass = benign", fillcolor="#88c4ef"] ;
24 -> 25 ;
26 [label="gini = 0.0\nsamples = 5\nvalue = [0, 5]\nclass = benign", fillcolor="#399de5"] ;
25 -> 26 ;
27 [label="gini = 0.0\nsamples = 2\nvalue = [2, 0]\nclass = malignant", fillcolor="#e58139"] ;
25 -> 27 ;
28 [label="worst concavity <= 0.18\ngini = 0.014\nsamples = 137\nvalue = [136, 1]\nclass = malignant", fillcolor="#e5823a"] ;
24 -> 28 ;
29 [label="radius error <= 0.359\ngini = 0.375\nsamples = 4\nvalue = [3, 1]\nclass = malignant", fillcolor="#eeab7b"] ;
28 -> 29 ;
30 [label="gini = 0.0\nsamples = 1\nvalue = [0, 1]\nclass = benign", fillcolor="#399de5"] ;
29 -> 30 ;
31 [label="gini = 0.0\nsamples = 3\nvalue = [3, 0]\nclass = malignant", fillcolor="#e58139"] ;
29 -> 31 ;
32 [label="gini = 0.0\nsamples = 133\nvalue = [133, 0]\nclass = malignant", fillcolor="#e58139"] ;
28 -> 32 ;
}