digraph Tree {
node [shape=box, style="filled, rounded", color="black", fontname=helvetica] ;
edge [fontname=helvetica] ;
0 [label="worst concave points <= 0.122\ngini = 0.444\nsamples = 114\nvalue = [38, 76]\nclass = benign", fillcolor="#9ccef2"] ;
1 [label="worst compactness <= 0.053\ngini = 0.027\nsamples = 72\nvalue = [1, 71]\nclass = benign", fillcolor="#3c9ee5"] ;
0 -> 1 [labeldistance=2.5, labelangle=45, headlabel="True"] ;
2 [label="gini = 0.0\nsamples = 1\nvalue = [1, 0]\nclass = malignant", fillcolor="#e58139"] ;
1 -> 2 ;
3 [label="gini = 0.0\nsamples = 71\nvalue = [0, 71]\nclass = benign", fillcolor="#399de5"] ;
1 -> 3 ;
4 [label="area error <= 22.11\ngini = 0.21\nsamples = 42\nvalue = [37, 5]\nclass = malignant", fillcolor="#e99254"] ;
0 -> 4 [labeldistance=2.5, labelangle=-45, headlabel="False"] ;
5 [label="gini = 0.0\nsamples = 4\nvalue = [0, 4]\nclass = benign", fillcolor="#399de5"] ;
4 -> 5 ;
6 [label="worst concavity <= 0.208\ngini = 0.051\nsamples = 38\nvalue = [37, 1]\nclass = malignant", fillcolor="#e6843e"] ;
4 -> 6 ;
7 [label="gini = 0.0\nsamples = 1\nvalue = [0, 1]\nclass = benign", fillcolor="#399de5"] ;
6 -> 7 ;
8 [label="gini = 0.0\nsamples = 37\nvalue = [37, 0]\nclass = malignant", fillcolor="#e58139"] ;
6 -> 8 ;
}