digraph Tree {
node [shape=box, style="filled, rounded", color="black", fontname=helvetica] ;
edge [fontname=helvetica] ;
0 [label="petal width (cm) <= 2.95\ngini = 0.624\nsamples = 30\nvalue = [8, 15, 7]\nclass = versicolor", fillcolor="#c0f7d7"] ;
1 [label="petal length (cm) <= 6.6\ngini = 0.337\nsamples = 14\nvalue = [0, 11, 3]\nclass = versicolor", fillcolor="#6feca3"] ;
0 -> 1 [labeldistance=2.5, labelangle=45, headlabel="True"] ;
2 [label="petal length (cm) <= 5.7\ngini = 0.26\nsamples = 13\nvalue = [0, 11, 2]\nclass = versicolor", fillcolor="#5dea98"] ;
1 -> 2 ;
3 [label="gini = 0.0\nsamples = 5\nvalue = [0, 5, 0]\nclass = versicolor", fillcolor="#39e581"] ;
2 -> 3 ;
4 [label="petal length (cm) <= 6.25\ngini = 0.375\nsamples = 8\nvalue = [0, 6, 2]\nclass = versicolor", fillcolor="#7beeab"] ;
2 -> 4 ;
5 [label="petal width (cm) <= 2.85\ngini = 0.444\nsamples = 6\nvalue = [0, 4, 2]\nclass = versicolor", fillcolor="#9cf2c0"] ;
4 -> 5 ;
6 [label="petal length (cm) <= 5.95\ngini = 0.48\nsamples = 5\nvalue = [0, 3, 2]\nclass = versicolor", fillcolor="#bdf6d5"] ;
5 -> 6 ;
7 [label="petal width (cm) <= 2.7\ngini = 0.5\nsamples = 2\nvalue = [0, 1, 1]\nclass = versicolor", fillcolor="#ffffff"] ;
6 -> 7 ;
8 [label="gini = 0.0\nsamples = 1\nvalue = [0, 1, 0]\nclass = versicolor", fillcolor="#39e581"] ;
7 -> 8 ;
9 [label="gini = 0.0\nsamples = 1\nvalue = [0, 0, 1]\nclass = virginica", fillcolor="#8139e5"] ;
7 -> 9 ;
10 [label="petal width (cm) <= 2.7\ngini = 0.444\nsamples = 3\nvalue = [0, 2, 1]\nclass = versicolor", fillcolor="#9cf2c0"] ;
6 -> 10 ;
11 [label="gini = 0.0\nsamples = 1\nvalue = [0, 0, 1]\nclass = virginica", fillcolor="#8139e5"] ;
10 -> 11 ;
12 [label="gini = 0.0\nsamples = 2\nvalue = [0, 2, 0]\nclass = versicolor", fillcolor="#39e581"] ;
10 -> 12 ;
13 [label="gini = 0.0\nsamples = 1\nvalue = [0, 1, 0]\nclass = versicolor", fillcolor="#39e581"] ;
5 -> 13 ;
14 [label="gini = 0.0\nsamples = 2\nvalue = [0, 2, 0]\nclass = versicolor", fillcolor="#39e581"] ;
4 -> 14 ;
15 [label="gini = 0.0\nsamples = 1\nvalue = [0, 0, 1]\nclass = virginica", fillcolor="#8139e5"] ;
1 -> 15 ;
16 [label="petal length (cm) <= 5.8\ngini = 0.625\nsamples = 16\nvalue = [8, 4, 4]\nclass = setosa", fillcolor="#f6d5bd"] ;
0 -> 16 [labeldistance=2.5, labelangle=-45, headlabel="False"] ;
17 [label="petal width (cm) <= 3.1\ngini = 0.198\nsamples = 9\nvalue = [8, 1, 0]\nclass = setosa", fillcolor="#e89152"] ;
16 -> 17 ;
18 [label="petal length (cm) <= 5.15\ngini = 0.375\nsamples = 4\nvalue = [3, 1, 0]\nclass = setosa", fillcolor="#eeab7b"] ;
17 -> 18 ;
19 [label="gini = 0.0\nsamples = 3\nvalue = [3, 0, 0]\nclass = setosa", fillcolor="#e58139"] ;
18 -> 19 ;
20 [label="gini = 0.0\nsamples = 1\nvalue = [0, 1, 0]\nclass = versicolor", fillcolor="#39e581"] ;
18 -> 20 ;
21 [label="gini = 0.0\nsamples = 5\nvalue = [5, 0, 0]\nclass = setosa", fillcolor="#e58139"] ;
17 -> 21 ;
22 [label="petal length (cm) <= 6.9\ngini = 0.49\nsamples = 7\nvalue = [0, 3, 4]\nclass = virginica", fillcolor="#e0cef8"] ;
16 -> 22 ;
23 [label="petal width (cm) <= 3.35\ngini = 0.444\nsamples = 6\nvalue = [0, 2, 4]\nclass = virginica", fillcolor="#c09cf2"] ;
22 -> 23 ;
24 [label="petal length (cm) <= 6.4\ngini = 0.32\nsamples = 5\nvalue = [0, 1, 4]\nclass = virginica", fillcolor="#a06aec"] ;
23 -> 24 ;
25 [label="petal length (cm) <= 6.0\ngini = 0.444\nsamples = 3\nvalue = [0, 1, 2]\nclass = virginica", fillcolor="#c09cf2"] ;
24 -> 25 ;
26 [label="gini = 0.0\nsamples = 1\nvalue = [0, 0, 1]\nclass = virginica", fillcolor="#8139e5"] ;
25 -> 26 ;
27 [label="gini = 0.5\nsamples = 2\nvalue = [0, 1, 1]\nclass = versicolor", fillcolor="#ffffff"] ;
25 -> 27 ;
28 [label="gini = 0.0\nsamples = 2\nvalue = [0, 0, 2]\nclass = virginica", fillcolor="#8139e5"] ;
24 -> 28 ;
29 [label="gini = 0.0\nsamples = 1\nvalue = [0, 1, 0]\nclass = versicolor", fillcolor="#39e581"] ;
23 -> 29 ;
30 [label="gini = 0.0\nsamples = 1\nvalue = [0, 1, 0]\nclass = versicolor", fillcolor="#39e581"] ;
22 -> 30 ;
}