digraph Tree {
node [shape=box, style="filled, rounded", color="black", fontname=helvetica] ;
edge [fontname=helvetica] ;
0 [label="petal length (cm) <= 5.5\ngini = 0.631\nsamples = 30\nvalue = [10, 6, 14]\nclass = virginica", fillcolor="#e6d7fa"] ;
1 [label="petal width (cm) <= 2.75\ngini = 0.18\nsamples = 10\nvalue = [9, 0, 1]\nclass = setosa", fillcolor="#e88f4f"] ;
0 -> 1 [labeldistance=2.5, labelangle=45, headlabel="True"] ;
2 [label="gini = 0.0\nsamples = 1\nvalue = [0, 0, 1]\nclass = virginica", fillcolor="#8139e5"] ;
1 -> 2 ;
3 [label="gini = 0.0\nsamples = 9\nvalue = [9, 0, 0]\nclass = setosa", fillcolor="#e58139"] ;
1 -> 3 ;
4 [label="petal width (cm) <= 2.35\ngini = 0.485\nsamples = 20\nvalue = [1, 6, 13]\nclass = virginica", fillcolor="#c09cf2"] ;
0 -> 4 [labeldistance=2.5, labelangle=-45, headlabel="False"] ;
5 [label="gini = 0.0\nsamples = 2\nvalue = [0, 2, 0]\nclass = versicolor", fillcolor="#39e581"] ;
4 -> 5 ;
6 [label="petal width (cm) <= 3.8\ngini = 0.426\nsamples = 18\nvalue = [1, 4, 13]\nclass = virginica", fillcolor="#ae80ee"] ;
4 -> 6 ;
7 [label="petal length (cm) <= 6.8\ngini = 0.36\nsamples = 17\nvalue = [0, 4, 13]\nclass = virginica", fillcolor="#a876ed"] ;
6 -> 7 ;
8 [label="petal length (cm) <= 5.75\ngini = 0.426\nsamples = 13\nvalue = [0, 4, 9]\nclass = virginica", fillcolor="#b991f1"] ;
7 -> 8 ;
9 [label="gini = 0.0\nsamples = 2\nvalue = [0, 0, 2]\nclass = virginica", fillcolor="#8139e5"] ;
8 -> 9 ;
10 [label="petal width (cm) <= 2.6\ngini = 0.463\nsamples = 11\nvalue = [0, 4, 7]\nclass = virginica", fillcolor="#c9aaf4"] ;
8 -> 10 ;
11 [label="gini = 0.0\nsamples = 1\nvalue = [0, 0, 1]\nclass = virginica", fillcolor="#8139e5"] ;
10 -> 11 ;
12 [label="petal length (cm) <= 6.6\ngini = 0.48\nsamples = 10\nvalue = [0, 4, 6]\nclass = virginica", fillcolor="#d5bdf6"] ;
10 -> 12 ;
13 [label="petal length (cm) <= 6.15\ngini = 0.444\nsamples = 9\nvalue = [0, 3, 6]\nclass = virginica", fillcolor="#c09cf2"] ;
12 -> 13 ;
14 [label="petal length (cm) <= 5.85\ngini = 0.5\nsamples = 4\nvalue = [0, 2, 2]\nclass = versicolor", fillcolor="#ffffff"] ;
13 -> 14 ;
15 [label="gini = 0.444\nsamples = 3\nvalue = [0, 1, 2]\nclass = virginica", fillcolor="#c09cf2"] ;
14 -> 15 ;
16 [label="gini = 0.0\nsamples = 1\nvalue = [0, 1, 0]\nclass = versicolor", fillcolor="#39e581"] ;
14 -> 16 ;
17 [label="petal width (cm) <= 2.9\ngini = 0.32\nsamples = 5\nvalue = [0, 1, 4]\nclass = virginica", fillcolor="#a06aec"] ;
13 -> 17 ;
18 [label="petal length (cm) <= 6.45\ngini = 0.5\nsamples = 2\nvalue = [0, 1, 1]\nclass = versicolor", fillcolor="#ffffff"] ;
17 -> 18 ;
19 [label="gini = 0.0\nsamples = 1\nvalue = [0, 0, 1]\nclass = virginica", fillcolor="#8139e5"] ;
18 -> 19 ;
20 [label="gini = 0.0\nsamples = 1\nvalue = [0, 1, 0]\nclass = versicolor", fillcolor="#39e581"] ;
18 -> 20 ;
21 [label="gini = 0.0\nsamples = 3\nvalue = [0, 0, 3]\nclass = virginica", fillcolor="#8139e5"] ;
17 -> 21 ;
22 [label="gini = 0.0\nsamples = 1\nvalue = [0, 1, 0]\nclass = versicolor", fillcolor="#39e581"] ;
12 -> 22 ;
23 [label="gini = 0.0\nsamples = 4\nvalue = [0, 0, 4]\nclass = virginica", fillcolor="#8139e5"] ;
7 -> 23 ;
24 [label="gini = 0.0\nsamples = 1\nvalue = [1, 0, 0]\nclass = setosa", fillcolor="#e58139"] ;
6 -> 24 ;
}