digraph Tree {
node [shape=box, style="filled, rounded", color="black", fontname=helvetica] ;
edge [fontname=helvetica] ;
0 [label="proline <= 755.0\ngini = 0.659\nsamples = 142\nvalue = [45, 57, 40]\nclass = class_1", fillcolor="#e7fcef"] ;
1 [label="od280/od315_of_diluted_wines <= 2.115\ngini = 0.477\nsamples = 89\nvalue = [0, 54, 35]\nclass = class_1", fillcolor="#b9f6d3"] ;
0 -> 1 [labeldistance=2.5, labelangle=45, headlabel="True"] ;
2 [label="hue <= 0.935\ngini = 0.224\nsamples = 39\nvalue = [0, 5, 34]\nclass = class_2", fillcolor="#9456e9"] ;
1 -> 2 ;
3 [label="flavanoids <= 1.58\ngini = 0.056\nsamples = 35\nvalue = [0, 1, 34]\nclass = class_2", fillcolor="#853fe6"] ;
2 -> 3 ;
4 [label="gini = 0.0\nsamples = 34\nvalue = [0, 0, 34]\nclass = class_2", fillcolor="#8139e5"] ;
3 -> 4 ;
5 [label="gini = 0.0\nsamples = 1\nvalue = [0, 1, 0]\nclass = class_1", fillcolor="#39e581"] ;
3 -> 5 ;
6 [label="gini = 0.0\nsamples = 4\nvalue = [0, 4, 0]\nclass = class_1", fillcolor="#39e581"] ;
2 -> 6 ;
7 [label="flavanoids <= 0.745\ngini = 0.039\nsamples = 50\nvalue = [0, 49, 1]\nclass = class_1", fillcolor="#3de684"] ;
1 -> 7 ;
8 [label="gini = 0.0\nsamples = 1\nvalue = [0, 0, 1]\nclass = class_2", fillcolor="#8139e5"] ;
7 -> 8 ;
9 [label="gini = 0.0\nsamples = 49\nvalue = [0, 49, 0]\nclass = class_1", fillcolor="#39e581"] ;
7 -> 9 ;
10 [label="flavanoids <= 2.165\ngini = 0.267\nsamples = 53\nvalue = [45, 3, 5]\nclass = class_0", fillcolor="#e9965a"] ;
0 -> 10 [labeldistance=2.5, labelangle=-45, headlabel="False"] ;
11 [label="malic_acid <= 2.085\ngini = 0.408\nsamples = 7\nvalue = [0, 2, 5]\nclass = class_2", fillcolor="#b388ef"] ;
10 -> 11 ;
12 [label="gini = 0.0\nsamples = 2\nvalue = [0, 2, 0]\nclass = class_1", fillcolor="#39e581"] ;
11 -> 12 ;
13 [label="gini = 0.0\nsamples = 5\nvalue = [0, 0, 5]\nclass = class_2", fillcolor="#8139e5"] ;
11 -> 13 ;
14 [label="alcohol <= 12.7\ngini = 0.043\nsamples = 46\nvalue = [45, 1, 0]\nclass = class_0", fillcolor="#e6843d"] ;
10 -> 14 ;
15 [label="gini = 0.0\nsamples = 1\nvalue = [0, 1, 0]\nclass = class_1", fillcolor="#39e581"] ;
14 -> 15 ;
16 [label="gini = 0.0\nsamples = 45\nvalue = [45, 0, 0]\nclass = class_0", fillcolor="#e58139"] ;
14 -> 16 ;
}