digraph Tree {
node [shape=box, style="filled, rounded", color="black", fontname=helvetica] ;
edge [fontname=helvetica] ;
0 [label="alcohol <= 12.765\ngini = 0.637\nsamples = 36\nvalue = [14, 15, 7]\nclass = class_1", fillcolor="#f6fef9"] ;
1 [label="malic_acid <= 3.215\ngini = 0.117\nsamples = 16\nvalue = [0, 15, 1]\nclass = class_1", fillcolor="#46e789"] ;
0 -> 1 [labeldistance=2.5, labelangle=45, headlabel="True"] ;
2 [label="gini = 0.0\nsamples = 15\nvalue = [0, 15, 0]\nclass = class_1", fillcolor="#39e581"] ;
1 -> 2 ;
3 [label="gini = 0.0\nsamples = 1\nvalue = [0, 0, 1]\nclass = class_2", fillcolor="#8139e5"] ;
1 -> 3 ;
4 [label="total_phenols <= 2.23\ngini = 0.42\nsamples = 20\nvalue = [14, 0, 6]\nclass = class_0", fillcolor="#f0b78e"] ;
0 -> 4 [labeldistance=2.5, labelangle=-45, headlabel="False"] ;
5 [label="gini = 0.0\nsamples = 6\nvalue = [0, 0, 6]\nclass = class_2", fillcolor="#8139e5"] ;
4 -> 5 ;
6 [label="gini = 0.0\nsamples = 14\nvalue = [14, 0, 0]\nclass = class_0", fillcolor="#e58139"] ;
4 -> 6 ;
}