digraph Tree {
node [shape=box, style="filled, rounded", color="black", fontname=helvetica] ;
edge [fontname=helvetica] ;
0 [label="flavanoids <= 1.315\ngini = 0.662\nsamples = 36\nvalue = [10, 13, 13]\nclass = class_1", fillcolor="#ffffff"] ;
1 [label="gini = 0.0\nsamples = 13\nvalue = [0, 0, 13]\nclass = class_2", fillcolor="#8139e5"] ;
0 -> 1 [labeldistance=2.5, labelangle=45, headlabel="True"] ;
2 [label="proline <= 710.0\ngini = 0.491\nsamples = 23\nvalue = [10, 13, 0]\nclass = class_1", fillcolor="#d1f9e2"] ;
0 -> 2 [labeldistance=2.5, labelangle=-45, headlabel="False"] ;
3 [label="gini = 0.0\nsamples = 12\nvalue = [0, 12, 0]\nclass = class_1", fillcolor="#39e581"] ;
2 -> 3 ;
4 [label="color_intensity <= 3.525\ngini = 0.165\nsamples = 11\nvalue = [10, 1, 0]\nclass = class_0", fillcolor="#e88e4d"] ;
2 -> 4 ;
5 [label="gini = 0.0\nsamples = 1\nvalue = [0, 1, 0]\nclass = class_1", fillcolor="#39e581"] ;
4 -> 5 ;
6 [label="gini = 0.0\nsamples = 10\nvalue = [10, 0, 0]\nclass = class_0", fillcolor="#e58139"] ;
4 -> 6 ;
}