digraph Tree {
node [shape=box, style="filled, rounded", color="black", fontname=helvetica] ;
edge [fontname=helvetica] ;
0 [label="color_intensity <= 3.82\ngini = 0.653\nsamples = 142\nvalue = [49, 58, 35]\nclass = class_1", fillcolor="#ecfcf3"] ;
1 [label="od280/od315_of_diluted_wines <= 3.73\ngini = 0.105\nsamples = 54\nvalue = [3, 51, 0]\nclass = class_1", fillcolor="#45e788"] ;
0 -> 1 [labeldistance=2.5, labelangle=45, headlabel="True"] ;
2 [label="ash <= 3.07\ngini = 0.038\nsamples = 52\nvalue = [1, 51, 0]\nclass = class_1", fillcolor="#3de683"] ;
1 -> 2 ;
3 [label="gini = 0.0\nsamples = 51\nvalue = [0, 51, 0]\nclass = class_1", fillcolor="#39e581"] ;
2 -> 3 ;
4 [label="gini = 0.0\nsamples = 1\nvalue = [1, 0, 0]\nclass = class_0", fillcolor="#e58139"] ;
2 -> 4 ;
5 [label="gini = 0.0\nsamples = 2\nvalue = [2, 0, 0]\nclass = class_0", fillcolor="#e58139"] ;
1 -> 5 ;
6 [label="flavanoids <= 1.58\ngini = 0.562\nsamples = 88\nvalue = [46, 7, 35]\nclass = class_0", fillcolor="#fae5d6"] ;
0 -> 6 [labeldistance=2.5, labelangle=-45, headlabel="False"] ;
7 [label="ash <= 2.06\ngini = 0.054\nsamples = 36\nvalue = [0, 1, 35]\nclass = class_2", fillcolor="#853fe6"] ;
6 -> 7 ;
8 [label="gini = 0.0\nsamples = 1\nvalue = [0, 1, 0]\nclass = class_1", fillcolor="#39e581"] ;
7 -> 8 ;
9 [label="gini = 0.0\nsamples = 35\nvalue = [0, 0, 35]\nclass = class_2", fillcolor="#8139e5"] ;
7 -> 9 ;
10 [label="proline <= 724.5\ngini = 0.204\nsamples = 52\nvalue = [46, 6, 0]\nclass = class_0", fillcolor="#e89153"] ;
6 -> 10 ;
11 [label="hue <= 0.83\ngini = 0.245\nsamples = 7\nvalue = [1, 6, 0]\nclass = class_1", fillcolor="#5ae996"] ;
10 -> 11 ;
12 [label="gini = 0.0\nsamples = 1\nvalue = [1, 0, 0]\nclass = class_0", fillcolor="#e58139"] ;
11 -> 12 ;
13 [label="gini = 0.0\nsamples = 6\nvalue = [0, 6, 0]\nclass = class_1", fillcolor="#39e581"] ;
11 -> 13 ;
14 [label="gini = 0.0\nsamples = 45\nvalue = [45, 0, 0]\nclass = class_0", fillcolor="#e58139"] ;
10 -> 14 ;
}