digraph Tree {
node [shape=box, style="filled, rounded", color="black", fontname=helvetica] ;
edge [fontname=helvetica] ;
0 [label="proline <= 897.5\ngini = 0.661\nsamples = 142\nvalue = [45, 56, 41]\nclass = class_1", fillcolor="#e9fcf1"] ;
1 [label="color_intensity <= 4.85\ngini = 0.538\nsamples = 100\nvalue = [5, 54, 41]\nclass = class_1", fillcolor="#d3f9e3"] ;
0 -> 1 [labeldistance=2.5, labelangle=45, headlabel="True"] ;
2 [label="flavanoids <= 0.56\ngini = 0.239\nsamples = 60\nvalue = [3, 52, 5]\nclass = class_1", fillcolor="#56e993"] ;
1 -> 2 ;
3 [label="gini = 0.0\nsamples = 4\nvalue = [0, 0, 4]\nclass = class_2", fillcolor="#8139e5"] ;
2 -> 3 ;
4 [label="proline <= 790.0\ngini = 0.135\nsamples = 56\nvalue = [3, 52, 1]\nclass = class_1", fillcolor="#48e78b"] ;
2 -> 4 ;
5 [label="od280/od315_of_diluted_wines <= 1.48\ngini = 0.073\nsamples = 53\nvalue = [1, 51, 1]\nclass = class_1", fillcolor="#41e686"] ;
4 -> 5 ;
6 [label="gini = 0.0\nsamples = 1\nvalue = [0, 0, 1]\nclass = class_2", fillcolor="#8139e5"] ;
5 -> 6 ;
7 [label="malic_acid <= 3.925\ngini = 0.038\nsamples = 52\nvalue = [1, 51, 0]\nclass = class_1", fillcolor="#3de683"] ;
5 -> 7 ;
8 [label="gini = 0.0\nsamples = 47\nvalue = [0, 47, 0]\nclass = class_1", fillcolor="#39e581"] ;
7 -> 8 ;
9 [label="alcohol <= 13.145\ngini = 0.32\nsamples = 5\nvalue = [1, 4, 0]\nclass = class_1", fillcolor="#6aeca0"] ;
7 -> 9 ;
10 [label="gini = 0.0\nsamples = 4\nvalue = [0, 4, 0]\nclass = class_1", fillcolor="#39e581"] ;
9 -> 10 ;
11 [label="gini = 0.0\nsamples = 1\nvalue = [1, 0, 0]\nclass = class_0", fillcolor="#e58139"] ;
9 -> 11 ;
12 [label="hue <= 1.013\ngini = 0.444\nsamples = 3\nvalue = [2, 1, 0]\nclass = class_0", fillcolor="#f2c09c"] ;
4 -> 12 ;
13 [label="gini = 0.0\nsamples = 1\nvalue = [0, 1, 0]\nclass = class_1", fillcolor="#39e581"] ;
12 -> 13 ;
14 [label="gini = 0.0\nsamples = 2\nvalue = [2, 0, 0]\nclass = class_0", fillcolor="#e58139"] ;
12 -> 14 ;
15 [label="total_phenols <= 2.89\ngini = 0.185\nsamples = 40\nvalue = [2, 2, 36]\nclass = class_2", fillcolor="#8e4ee8"] ;
1 -> 15 ;
16 [label="gini = 0.0\nsamples = 36\nvalue = [0, 0, 36]\nclass = class_2", fillcolor="#8139e5"] ;
15 -> 16 ;
17 [label="proline <= 641.0\ngini = 0.5\nsamples = 4\nvalue = [2, 2, 0]\nclass = class_0", fillcolor="#ffffff"] ;
15 -> 17 ;
18 [label="gini = 0.0\nsamples = 2\nvalue = [0, 2, 0]\nclass = class_1", fillcolor="#39e581"] ;
17 -> 18 ;
19 [label="gini = 0.0\nsamples = 2\nvalue = [2, 0, 0]\nclass = class_0", fillcolor="#e58139"] ;
17 -> 19 ;
20 [label="magnesium <= 135.5\ngini = 0.091\nsamples = 42\nvalue = [40, 2, 0]\nclass = class_0", fillcolor="#e68743"] ;
0 -> 20 [labeldistance=2.5, labelangle=-45, headlabel="False"] ;
21 [label="gini = 0.0\nsamples = 40\nvalue = [40, 0, 0]\nclass = class_0", fillcolor="#e58139"] ;
20 -> 21 ;
22 [label="gini = 0.0\nsamples = 2\nvalue = [0, 2, 0]\nclass = class_1", fillcolor="#39e581"] ;
20 -> 22 ;
}