digraph Tree {
node [shape=box, style="filled, rounded", color="black", fontname=helvetica] ;
edge [fontname=helvetica] ;
0 [label="flavanoids <= 2.36\ngini = 0.665\nsamples = 36\nvalue = [13, 12, 11]\nclass = class_0", fillcolor="#fefaf7"] ;
1 [label="color_intensity <= 3.825\ngini = 0.499\nsamples = 21\nvalue = [0, 10, 11]\nclass = class_2", fillcolor="#f4edfd"] ;
0 -> 1 [labeldistance=2.5, labelangle=45, headlabel="True"] ;
2 [label="gini = 0.0\nsamples = 10\nvalue = [0, 10, 0]\nclass = class_1", fillcolor="#39e581"] ;
1 -> 2 ;
3 [label="gini = 0.0\nsamples = 11\nvalue = [0, 0, 11]\nclass = class_2", fillcolor="#8139e5"] ;
1 -> 3 ;
4 [label="proline <= 710.0\ngini = 0.231\nsamples = 15\nvalue = [13, 2, 0]\nclass = class_0", fillcolor="#e99457"] ;
0 -> 4 [labeldistance=2.5, labelangle=-45, headlabel="False"] ;
5 [label="gini = 0.0\nsamples = 2\nvalue = [0, 2, 0]\nclass = class_1", fillcolor="#39e581"] ;
4 -> 5 ;
6 [label="gini = 0.0\nsamples = 13\nvalue = [13, 0, 0]\nclass = class_0", fillcolor="#e58139"] ;
4 -> 6 ;
}